nep4 3 Cu C O 
cutoff 5 3.5 54 20
n_max 4 4
basis_size 8 8
l_max 4 2 0
ANN 30 0
 -5.4381214e-02
  2.4145618e-02
  4.6265483e-02
 -7.0295505e-02
  1.2056470e-01
 -2.5877682e-02
  5.4774892e-02
  1.3053124e-02
  1.0047191e-01
  1.5302344e-02
  2.4193780e-02
  4.6217833e-02
  2.8754547e-03
  8.5904049e-03
 -9.6467398e-03
  1.6048199e-02
 -8.8827312e-02
  1.3665823e-02
  1.9782130e-01
  1.2112843e-03
  1.4510543e-02
  2.4843778e-02
  5.1894423e-02
 -1.9988636e-02
 -7.2399430e-02
  8.0844900e-03
 -1.0249896e-02
  1.9580203e-03
  8.6908489e-03
  2.9346033e-03
  3.8286319e-01
 -8.2467832e-02
 -1.4786832e-02
  5.2343268e-05
 -1.7645199e-02
 -1.6860172e-02
  4.1683204e-03
  1.5359050e-01
  2.4947701e-02
 -6.7060985e-02
  4.1535836e-02
 -2.5223471e-02
 -4.2547006e-02
 -7.4137546e-02
  3.5162903e-03
  1.0951066e-02
  1.5333450e-02
 -3.9729130e-02
 -5.5256244e-03
  3.2799639e-02
  8.1917616e-03
 -1.7796207e-02
 -2.7248329e-02
 -3.2994695e-02
 -1.0136785e-01
 -1.2737261e-01
 -1.9682935e-02
 -6.5727471e-03
 -1.3457470e-02
 -5.3072148e-03
  3.2462084e+00
 -1.1140200e+00
 -2.7046773e-01
  2.8954341e+00
  1.1767111e+00
 -4.0331226e-02
 -1.0027237e-02
 -2.2479541e+00
 -2.0624115e+00
  8.5081950e-02
 -5.2520204e-02
  4.7279991e-02
 -5.1885494e-03
 -6.9498968e-01
 -6.2842810e-01
  3.7846673e-02
 -6.3133044e-03
 -8.3280790e-01
 -6.8879128e-01
 -1.2796421e+00
 -1.7720293e-02
 -1.4733956e-02
 -1.0534120e+00
 -8.2629776e-01
 -1.6513552e-01
  8.2372896e-02
  3.0930676e-02
 -8.1095628e-02
 -2.8201258e-02
  3.6107212e-01
 -4.5507139e-01
  1.4954894e+00
  2.1643200e+00
 -1.5160183e+00
 -1.1215367e-01
  2.7372073e-02
  1.1869393e-01
 -1.8113545e-01
  4.4165197e-01
 -7.0314300e-01
  1.2003493e-02
  1.6289482e-02
 -2.1962821e-01
  7.6952875e-01
 -2.6772416e-01
  4.4154234e-02
  9.8336861e-03
 -3.0940321e-01
  4.9279866e-01
 -3.8555783e-01
 -1.6928716e-02
  4.9668882e-02
  1.1017736e-01
  2.2692131e-01
  3.8784958e-02
 -1.3687807e-02
  2.6614372e-02
 -2.6288673e-02
 -2.0102134e-02
 -8.4972205e-03
  2.2217796e+00
  7.1400666e-01
  1.6256777e+00
  4.1157418e-01
 -2.3862009e+00
  4.1727416e-02
  9.2775428e-01
 -1.2872514e-01
 -1.0653992e+00
  1.9161068e+00
 -2.1143299e-02
  5.3581558e-03
  2.1152705e-01
  4.5946036e-02
 -5.2526224e-01
  1.7160775e-02
 -2.9685529e-02
 -7.1763748e-01
  3.2311311e-01
  2.2604944e-02
  1.5459596e-02
  5.9574787e-02
 -1.0149896e-01
 -2.2176127e-01
 -1.2857041e-02
 -4.9444880e-02
  3.5669751e-02
  5.6823384e-04
 -2.8429218e-02
  1.9719107e-02
 -1.0116771e+00
 -5.1090801e-01
  1.2962099e+00
  3.9524797e-01
 -1.2167073e+00
  2.9668789e-02
 -1.8041573e-01
  1.2046063e+00
  2.0848475e-01
 -1.8604317e-01
  2.2492832e-02
  1.1245573e+00
 -1.0911932e-01
  9.0890676e-02
 -3.0432022e-01
 -1.6362846e-02
  1.0572700e-01
  3.2620947e-03
  4.5306912e-01
 -3.7814346e-01
  1.1536594e-02
  1.1516521e-01
 -4.3880925e-02
  1.3696469e-01
 -1.6881859e-01
  2.3065561e-02
  2.5641895e-03
 -2.2295533e-01
  3.1607396e-03
  2.8099743e-01
 -3.1318299e-02
  2.1197584e-02
 -1.5673304e-02
  3.4575067e-02
  6.5835486e-03
 -7.7929031e-03
 -1.3038990e-02
 -1.0175957e-02
 -1.7053825e-01
  4.0561620e-02
  4.4178091e-02
 -2.6539881e-02
  8.3440281e-03
  6.0237296e-02
 -2.7312005e-02
  2.2508591e-02
  1.3838834e-01
 -2.3541786e-02
 -2.1656187e-02
  2.2716317e-02
  6.9845673e-03
 -1.5279995e-02
 -4.6135962e-02
 -3.3375315e-02
 -2.9253740e-02
 -5.6815062e-02
  1.7580286e-02
  5.8244481e-03
 -4.6739731e-02
  1.9026158e-02
 -7.0552185e-02
  6.2901601e-03
  3.0520529e-02
 -7.9253718e-02
  3.4881860e-02
 -3.2409023e-02
 -1.8499974e-02
  3.5448797e-02
  1.1006337e-01
 -7.4538420e-04
  6.0250972e-05
  5.4731276e-02
  2.6597628e-02
  1.4671226e-01
 -7.6200701e-02
  3.7509585e-03
  7.3353839e-03
  1.0006841e-02
  7.5928994e-02
  1.9261675e-02
 -4.8128188e-02
  5.6014977e-02
  2.9870279e-02
 -1.9014893e-02
  6.1419673e-02
  5.9683146e-03
 -2.8053258e-02
 -2.0241288e-02
  3.9669842e-02
 -3.2254599e-02
 -9.9561107e-01
  6.6638124e-01
  9.4612492e-03
 -1.4602637e-01
  1.3612449e-01
  6.3424716e-03
 -2.2688283e-02
 -5.9433717e-01
 -1.8936152e-02
  1.2474151e-01
  3.7374977e-02
  5.0406493e-02
  1.5292478e-02
  2.0111340e-01
 -1.1242877e-02
 -7.3010348e-02
 -7.1857624e-02
  3.1037114e-03
  1.9235727e-01
 -3.0181989e-01
  1.3976504e-02
  2.4725966e-02
  1.3287492e-02
 -1.6361673e-01
  7.2738240e-03
 -5.3214692e-03
 -1.0414296e-02
 -4.9007242e-03
 -1.0635905e-02
  8.0498107e-02
 -2.7058783e-01
  3.0059725e-02
 -5.9105836e-02
 -2.6844129e-02
  3.4010440e-02
 -1.4757037e-02
  2.9622097e-03
  1.7487202e-02
  7.0625618e-02
  4.2501817e-04
  7.7249936e-04
 -3.4306619e-01
 -1.8842891e-02
  7.7606678e-02
  1.7818041e-02
 -1.2472376e-02
 -5.0169504e-03
  1.5939601e-02
 -4.3074425e-02
 -3.8002584e-02
 -4.2221330e-02
 -2.2876438e-01
 -3.6711097e-02
 -3.0208278e-01
 -5.4092426e-02
 -9.0403736e-02
 -9.0888161e-03
 -6.5589016e-03
 -7.9761259e-02
  1.9153375e-02
  2.0404001e-01
  2.7579762e-02
 -1.2386240e-01
  7.1543525e-03
  1.1219958e-02
  1.4853269e-02
 -2.1098657e-02
  1.0483302e-02
 -2.6600171e-02
 -1.4399759e-02
 -1.5201231e-02
  3.4626760e-02
 -6.7645586e-03
  7.5095899e-02
  5.3676697e-03
 -3.1129455e-03
  2.6170302e-02
  2.5822753e-02
  9.3286321e-02
  2.4196930e-02
 -1.2629317e-02
  5.1941019e-03
 -1.1517261e-02
 -4.4552945e-02
  4.1802280e-02
  7.1560545e-03
  1.0607189e-02
 -2.2189341e-02
  2.2868210e-02
  6.5989229e-03
 -3.1913590e-02
  4.0006600e-02
 -2.1541992e-02
  6.4197660e-04
  2.0335138e-02
  1.7209899e-02
 -5.5906302e-03
 -1.2295304e-02
 -6.3418639e-03
 -1.6650184e-04
 -7.9135671e-03
 -5.5913730e-03
 -2.7450511e-02
  3.3267256e-02
  2.1736832e-02
  2.2741564e-02
  6.3714939e-03
 -1.1451093e-02
  4.9057614e-02
 -1.2179908e-02
  2.1380678e-02
  1.1876363e-03
  1.1108491e-03
 -1.8574610e-02
 -3.1212808e-03
 -1.1974523e-02
 -2.1838468e-02
  8.2079079e-03
 -2.0812126e-03
 -3.5085820e-02
  1.5382137e+00
  9.1962075e-01
  1.3261122e-01
 -5.8110446e-02
  1.3568040e+00
 -4.5627975e-03
 -2.4619855e-03
  1.1334541e+00
 -6.7678072e-02
  7.4185260e-02
 -2.7486589e-03
  4.8606910e-02
 -2.0703195e-02
 -5.6646341e-01
  5.2579117e-01
  1.3305897e-04
 -1.6840687e-02
  1.6725349e-01
  1.9488825e-02
  1.6335355e-02
 -2.9514723e-02
 -2.3548108e-01
  3.6888791e-03
 -8.4168178e-01
  7.0069992e-04
 -1.4095295e-02
  3.3293918e-02
 -8.3350055e-03
 -2.9196929e-02
 -1.5831536e-02
 -1.2079485e-01
 -1.8048473e-01
  1.9645138e-02
 -6.2450845e-02
  1.6316925e-01
  3.8824773e-03
  1.5085188e-02
  2.8924528e-03
  2.6272455e-02
  1.7645251e-02
  5.6162849e-02
 -1.2864849e-02
 -4.8039902e-02
  2.6263273e-01
  3.4731343e-02
 -1.4239992e-02
  1.0581426e-01
  2.2244181e-02
  1.0756223e-02
  4.3086875e-02
  3.0698180e-02
  3.6833823e-02
  7.6243863e-02
  2.0604784e-06
  5.2460987e-02
  3.8216885e-02
  3.0763369e-02
  3.5095241e-02
  5.5487859e-03
  7.0239775e-02
 -8.6477536e-01
  1.1689815e-03
  1.0298363e+00
  8.1900257e-01
 -1.9927253e+00
 -6.6551956e-04
 -1.1282800e-02
 -1.7216973e-01
  4.5462552e-01
 -9.2982453e-01
 -2.7070491e-02
 -2.3641570e-03
 -2.0237069e-01
  8.1764054e-01
 -6.8743122e-01
  4.2943917e-02
  4.7426781e-01
  5.0298148e-01
  3.0087586e-02
  1.6155905e-01
  1.8772965e-02
  2.4736796e-02
  1.3528486e-03
  6.3620496e-01
  7.3266298e-02
  3.5455879e-02
  1.6745107e-02
 -1.6116337e-01
  9.5538673e-04
 -2.8250867e-03
 -1.9835342e-01
  7.6510303e-02
  5.2819572e-02
  5.9255781e-03
  2.6412895e-02
  5.1912095e-02
 -2.9109097e-03
 -4.7605992e-03
  1.5572502e-01
 -1.3459079e-03
 -4.7823940e-03
  9.8013617e-03
 -5.1484851e-04
  2.2345909e-01
  1.4090237e-02
  3.0323840e-03
 -9.4456673e-03
 -1.5759829e-02
  2.4010609e-03
  1.0076485e-02
  7.6285109e-02
 -2.4284672e-03
  1.6250916e-02
  2.7122511e-02
  1.5015415e-02
  1.6254852e-02
 -1.5002831e-02
  4.3415800e-03
 -7.6156214e-02
  3.3014819e-03
  9.4847074e-03
 -1.2137646e-02
 -1.3838003e+00
  1.5960090e-02
  1.2879018e-01
  2.8809858e-03
  4.0565390e-02
  1.1736516e-01
 -1.5274133e-01
 -8.5685320e-02
 -2.5219988e-02
  1.1508176e-02
  1.3236766e-02
 -2.0255287e-01
  3.1577285e-02
 -2.5526384e-02
 -8.4468231e-02
 -1.1076916e-02
  4.7453340e-02
 -2.9719736e-02
 -3.1372353e-02
 -4.3621091e-03
  8.2258075e-02
 -5.0972844e-03
 -6.5280162e-02
  1.4784390e-02
 -7.9384875e-03
  7.6457829e-04
  8.8057462e-03
  5.2697197e-02
  1.5991967e+00
  4.9224842e-02
  1.3375207e-02
  4.8148182e-01
 -5.3480290e-02
  1.0455658e-02
 -9.5819477e-03
  2.3793874e-02
  7.7834683e-03
 -4.8506431e-02
  1.0911373e-02
 -3.5067007e-02
  2.9143225e-02
 -1.4226575e-01
  1.1019522e-02
  4.6963621e-02
 -1.0760028e-02
 -2.1774620e-02
 -2.4178204e-01
  3.6256737e-01
  4.5488067e-02
 -5.8666561e-02
  8.1777181e-03
 -2.8853536e-02
 -1.8482623e-01
 -1.2533288e-02
  2.5950730e-02
 -1.7023910e-02
 -2.7227441e-02
  2.7080441e-02
 -2.1161513e-01
  1.8935349e-02
 -7.0186844e-03
 -2.1406919e-02
  2.3763177e-01
  1.0359844e-02
 -5.2819423e-02
 -9.6332170e-03
  1.8652178e-02
  2.1520719e-02
 -2.7150649e-03
 -4.0846659e-04
  2.0689858e-02
  8.8678688e-02
 -1.6128991e-02
  1.6386464e-03
 -2.7747905e-02
  1.9028505e-02
  1.1098883e-01
 -7.5191883e-03
 -6.1253350e-02
 -3.9264560e-03
  5.0352877e-03
  3.4925018e-02
  6.1378926e-02
 -6.8122923e-02
  1.5439141e-02
 -9.1840597e-03
  2.4673510e-02
  4.4555545e-02
 -6.6070832e-02
  7.7169943e-03
  1.2425438e-02
 -3.4631640e-02
 -2.1396794e-03
  1.7910710e-02
 -1.5995767e-02
 -3.4415495e-02
  2.3111696e-03
 -1.3186647e-02
 -1.1433711e-02
  2.8603712e-02
  6.3808441e-02
  1.5574202e-02
  5.0817528e-03
 -7.1519665e-02
  4.0739689e-02
 -1.1820974e-02
  5.6655917e-02
  3.4082938e-02
  9.9424962e-03
 -2.0574311e-02
 -4.4697154e-02
  9.6264848e-04
  2.0637466e-02
  2.0932201e-02
  2.9018922e-02
  3.6539365e-02
  1.0414976e-03
  6.0512051e-03
 -3.6714848e-02
  3.5606150e-02
 -1.1244440e-02
  1.3018240e-03
  9.7562268e-02
  8.0214277e-02
  2.1511532e-02
  2.7036702e-03
 -3.8314806e-04
 -1.6663192e-02
  2.8085237e-02
 -3.3981421e-03
  4.3203730e-02
  2.6152540e-02
  1.6951481e-03
 -3.9355967e-02
  2.6074966e-02
 -1.3820906e-02
 -9.7895656e-03
  1.8073106e-02
  4.6060722e-02
  2.7091548e-02
 -3.9664499e-02
  1.1748303e-02
  3.7548065e-02
  1.4165766e-02
  1.3297163e-02
 -5.9010740e-02
  5.4733824e-02
 -7.3528630e-03
  1.1602297e-01
  9.8037692e-03
  3.6312439e-02
  2.4410656e-02
 -2.7254859e-02
 -1.7959410e-02
 -1.0480938e-03
  1.6753692e-02
 -1.3245015e-01
 -3.1760309e-02
 -4.5416046e-02
 -2.4002898e-02
  2.0388553e-02
 -4.0715810e-02
 -2.6021454e-02
 -2.6086294e-03
 -1.5460581e-02
 -1.2783751e-02
  2.5216278e-03
  5.9059408e-02
 -3.6424506e-02
  6.6166045e-03
  2.6345070e-02
  2.9350284e-02
  1.1600854e-02
 -1.6194966e-02
 -4.1539460e-02
 -6.5037861e-02
 -3.9158929e-03
  2.2233050e-02
  8.2216002e-02
 -6.0650241e-02
 -3.7013333e-02
  2.6062792e-02
 -5.0116710e-02
 -7.9982998e-03
  5.6473162e-02
 -1.5217726e-02
 -5.4132557e-03
  6.7303312e-04
  5.1365022e-02
 -6.7492224e-02
 -1.5425614e-02
 -1.1582092e-02
  2.2843501e-03
  7.1226001e-02
  9.7511187e-03
 -5.3125154e-03
 -8.5649185e-02
 -7.3053078e-03
 -1.0521856e-02
 -1.9156268e-02
 -9.6080258e-02
 -2.0312551e-02
 -1.1945633e-02
  2.0171911e-03
 -1.6720394e-02
  2.8192587e-02
 -2.1193180e-02
 -2.7712606e-02
  9.3953766e-02
 -8.6103505e-01
  3.5322547e-01
 -1.7890964e+00
 -5.6818265e-02
 -4.1360542e-04
  5.7269193e-02
  9.2860085e-01
 -1.1986462e+00
 -1.9513276e-01
 -7.5751506e-03
 -3.0052796e-01
  4.4102389e-02
 -2.2342187e-01
  1.1692772e+00
  5.8404658e-02
  1.4022708e-02
  7.9830755e-03
 -3.7208271e-01
  1.4564797e-01
 -4.7328481e-03
 -1.6391748e-01
 -1.5942192e-02
 -2.4165154e-01
 -1.0698010e-01
 -3.7506275e-02
  1.0676183e-02
  1.6317487e-02
  6.3922219e-03
 -1.0886963e-01
  2.2652727e-01
  1.3797049e-01
 -2.0197323e-03
 -1.5980743e-02
  1.0548333e-02
  2.8300533e-02
 -2.4443776e-03
 -6.8824221e-03
  4.7387925e-04
 -4.4348654e-03
 -8.7291496e-03
  5.5529620e-03
  5.7523632e-03
 -8.3682403e-02
  2.4202412e-02
  6.6213626e-03
 -2.3893110e-02
 -1.6563153e-02
 -1.9746202e-03
  7.7771810e-03
  3.2764763e-02
 -3.7874106e-02
 -7.6173074e-03
 -2.7745736e-01
  4.3708600e-02
  3.8024735e-02
 -5.6962329e-03
 -2.2025490e-02
  1.1300150e-03
 -4.4793397e-02
  1.2444773e+00
 -1.1748626e+00
  1.7702683e+00
  3.0687380e-01
  1.5767978e+00
 -3.3263028e-02
 -6.9440746e-01
 -4.9051660e-01
 -3.0914578e-01
 -5.5972564e-01
 -3.0967142e-02
 -8.4221649e-01
  5.1291585e-01
  1.2898650e-02
  4.8828065e-01
 -1.4257805e-03
  1.0730200e-02
  2.0239758e-01
 -3.3921844e-01
  3.3238772e-01
  3.4776803e-02
  2.8015388e-02
  2.7495360e-03
  1.8392736e-02
  1.1321261e+00
 -3.3671092e-02
  2.7754609e-02
 -1.1803499e-01
  2.1619096e-02
 -1.5966535e-02
 -1.5484702e-02
 -4.5589674e-02
 -5.4525353e-02
 -1.7726249e-03
  1.0008745e-01
 -2.0372057e-03
  2.0643342e-02
 -1.6425489e-02
  9.9754244e-02
  5.9181452e-02
 -7.5990926e-03
 -2.8671708e-02
  4.0670116e-02
  5.5876445e-02
 -8.4911697e-03
  1.4626517e-02
  9.4807506e-02
  9.3481112e-03
  3.7715726e-02
 -5.3982940e-02
 -5.2873944e-03
 -7.7638112e-02
  1.5016661e-02
  7.6394454e-02
  1.0294694e-01
 -5.8678281e-02
  7.9158753e-02
 -6.1039510e-03
  1.3089101e-02
 -8.1687197e-03
 -9.5534272e-02
 -1.5951976e-02
 -3.2301641e-03
 -5.5190325e-02
  4.1380900e-01
 -2.8400445e-02
  2.4602490e-02
 -5.1233959e-03
 -2.0210112e-03
  6.3842176e-03
 -5.2890768e-03
 -3.1038590e-02
  1.2619841e-01
  1.8451968e-02
 -5.8156360e-02
  4.1240328e-03
 -4.9641971e-02
 -1.9116454e-02
  1.0341424e-01
 -2.5339112e-02
  1.1665336e-02
 -6.6590966e-03
  5.7860790e-03
 -8.3501339e-03
 -2.8896218e-03
  1.4963294e-02
  9.9087447e-02
 -3.8035538e-02
 -1.3748209e-02
  1.4033538e-02
  1.6617927e-01
 -1.2718027e-02
  1.2518189e-02
  8.8280393e-04
 -3.0480540e-01
 -6.3401363e-03
 -1.5977139e-02
  9.6547179e-02
  1.0940949e-03
  4.8223488e-02
 -2.3586864e-02
  5.1847468e-03
 -3.8538240e-02
 -1.1628906e-01
 -9.5765144e-03
 -5.1594451e-03
  1.9228736e-02
 -3.1932291e-02
  8.2284603e-03
  9.2934109e-03
  4.0979732e-02
 -4.7466669e-02
 -1.7353645e-02
  1.2561445e-02
 -9.2733130e-02
 -2.3752332e-02
  2.1104131e-02
  3.3992827e-03
 -2.7260534e-02
  2.1961804e-02
 -2.7198317e-02
 -4.4950554e-03
 -4.7158305e-02
  2.9421836e-02
  1.4787841e-04
  7.2804786e-02
  2.6090033e-02
 -1.6094891e-02
  9.0520065e-03
  1.6635340e-02
  1.5913723e-02
 -2.4134161e-02
 -2.8932232e-02
  7.0458609e-03
  6.0578346e-02
  5.0378274e-03
 -2.5809264e-02
  2.1841151e-03
 -3.1608891e-02
  5.1580501e-01
 -3.6005612e-02
  1.1862703e-02
  3.8400218e-02
 -1.8587580e-02
  9.1178872e-02
 -2.3188923e-02
 -2.2826161e-02
  4.0519405e-02
  2.5989860e-03
 -2.6265401e-04
 -1.2759030e+00
  1.1687323e+00
 -1.7775938e-01
 -3.2320529e-01
 -4.8887444e-01
 -9.3344307e-01
 -6.2775040e-01
 -1.1045570e+00
 -8.7216985e-01
 -8.7929267e-01
  1.8097723e+00
 -1.2035322e+00
  8.2802154e-02
  2.1505199e-01
 -1.5131003e+00
 -4.2887720e-01
  8.0214703e-01
 -3.3386829e-01
 -1.1414096e+00
 -1.6240904e+00
 -9.9761933e-01
  1.7703322e+00
  9.0249479e-01
 -2.7690133e-01
  9.5214140e-01
  1.0602753e+00
 -4.0858594e-01
 -8.5498464e-01
  1.4577100e+00
 -2.5409849e+00
  3.0975142e+00
 -1.9687458e+00
  5.6935358e-01
  9.0263969e-01
  9.1315204e-01
  2.0728369e+00
 -9.4805652e-01
  3.7491205e+00
  1.5405587e+00
 -4.1837339e+00
 -2.6594009e+00
  6.5404660e-01
 -8.3575213e-01
  7.5828362e-01
  2.0447862e+00
  1.0924345e+00
 -3.8942283e-01
 -7.8976780e-01
  2.6709018e+00
  6.6452190e-02
  3.8582155e-01
 -2.4098830e+00
 -6.9741142e-01
 -1.0333724e+00
 -2.3398235e+00
 -3.6282058e+00
  2.5453910e-01
  1.8017908e+00
  1.4222428e+00
  4.0160108e+00
 -9.0571171e-01
  1.0570675e+00
 -6.4842100e-03
  6.8931228e-01
 -3.0893543e-01
 -5.2616507e-01
  1.6146904e-02
 -3.1499542e-02
  6.9904643e-01
 -1.9679058e-01
 -5.1665795e-01
 -3.5817459e-02
 -1.4258206e-01
  2.0583466e-01
 -3.6988562e-01
 -1.3724409e-01
 -3.0412858e-02
  1.9279130e-02
  2.9226574e-01
 -8.6264521e-02
 -3.9888375e-02
 -6.7916490e-02
  3.3052538e-02
  1.3039994e-01
 -7.5728059e-02
 -2.8155474e-02
 -7.3423833e-02
 -6.7043245e-02
 -1.2772463e-01
 -2.2012966e-02
 -1.1238812e-01
 -2.0650840e+00
  1.1612949e-02
  2.2173300e+00
 -1.2629490e-01
  9.0130478e-01
 -2.7018303e-02
 -2.4605835e-02
 -1.0851367e+00
  3.3236212e-01
  3.6967626e-01
 -3.7776589e-02
  7.1134756e-04
  1.1439002e-02
  6.3852030e-03
  6.8184924e-01
  4.7778299e-01
  7.0366180e-03
 -1.0707457e-02
  5.1098239e-01
  5.8147269e-01
  2.4293008e-01
  5.9166788e-03
 -5.1718879e-01
  2.8855655e-02
 -6.5821089e-02
 -4.7134243e-02
  6.9841649e-03
 -1.9927490e-01
  2.8882917e-02
 -6.0833548e-03
 -2.2013675e-02
  5.5452678e-02
 -2.9864999e-02
  7.7512681e-02
  6.6296314e-03
 -1.7034847e-02
 -2.8601654e-02
 -1.3733884e-02
 -2.2778556e-02
 -6.0859568e-02
  3.1166244e-02
 -5.3527904e-01
  3.6527742e-02
  2.3065859e-02
 -2.9079816e-03
  8.9129405e-03
 -2.5088599e-02
  8.4875600e-04
  1.7488200e-02
 -2.0829275e-02
 -2.8739790e-03
  1.2541088e-01
  8.3916806e-02
  1.7716154e-02
 -2.1672335e-02
  2.6308894e-02
  2.9398596e-02
  2.6574187e-02
  2.3960309e-02
  7.0716095e-01
  5.3465907e-03
 -1.0453949e-02
 -1.5220122e-02
 -3.4113236e-02
 -5.9910575e-03
 -3.0358320e-02
  3.7910540e-02
 -1.7515396e-01
  5.5084764e-03
 -7.9154512e-03
 -6.8634316e-02
  9.1278050e-03
  1.7858499e-01
  4.2426169e-02
  8.5334867e-02
 -6.8432055e-02
  7.2163977e-02
 -6.1838038e-02
  6.0666583e-02
 -3.3777061e-01
 -7.3169425e-02
  5.9759486e-02
  1.0777154e-01
  2.1230066e-02
  2.7903361e-02
  5.6346282e-02
 -7.7144943e-02
  3.0819323e-02
 -1.2338118e-02
 -1.3172444e-02
  5.7554357e-02
  2.6447076e-02
 -4.4001330e-02
 -1.5094306e-02
 -1.3093093e-01
  9.4776183e-02
 -1.0283723e-02
 -1.9253744e-01
  4.7133550e-02
  1.1580961e-01
  1.0347406e-01
  1.4750697e-01
 -6.9622397e-02
  3.4211043e-02
  1.3689162e-01
  4.4851033e-03
  4.3837097e-02
 -1.5967069e-02
 -7.8165820e-03
  1.6167246e-02
  2.0368693e-02
  3.4324035e-02
 -1.6952746e-01
 -6.4068623e-02
 -2.5207411e-02
 -7.3822692e-02
  2.6627515e-02
 -1.3187358e-01
 -4.0095765e-02
  1.8740255e-02
 -2.6704485e-02
  7.8501321e-02
 -1.3797043e-01
  1.4254147e-02
 -1.1951335e-02
 -3.1605095e-02
 -9.5702745e-02
 -2.5656750e-02
 -1.0319530e-01
 -1.1988082e-04
 -1.9161176e-03
 -2.5981579e-02
 -7.1226597e-02
 -5.8930308e-01
 -5.7650395e-02
 -7.5095527e-02
  1.8200012e-01
 -1.3308360e-02
  1.0217388e-01
 -2.4735613e-01
 -4.8814408e-02
  3.4675755e-02
 -1.7533083e-03
 -4.0848199e-02
 -1.6182765e-02
 -2.7169834e-03
  5.4784395e-02
 -7.1071625e-02
  1.5403589e-03
  2.9383468e-02
 -3.0515678e-02
 -1.0091259e-01
 -1.5410371e-01
  5.8647983e-02
 -1.0908513e+00
  6.7066014e-02
 -3.4160271e-02
  7.0726879e-02
  3.1999895e-01
 -2.1005590e-01
 -4.3997586e-01
  3.6633119e-02
 -5.6876183e-01
  3.0550867e-01
 -3.3662805e-01
  4.8059249e-01
  4.1328949e-01
  4.8026040e-02
 -1.9425239e-01
  4.0422395e-02
  4.7996257e-02
  1.1465319e-01
  9.3894258e-02
 -1.0932840e-01
  9.8379441e-02
  5.4318860e-02
  1.1689406e-03
 -7.5160591e-03
 -5.4046728e-02
  1.1377050e+00
 -3.7413883e-01
 -3.7609838e-02
  1.6694825e-02
  7.7012563e-03
  3.1963649e-01
 -1.3274401e-01
 -1.7834013e-02
 -9.6961129e-01
  1.1646054e-01
  6.1571974e-01
 -5.6188781e-02
  7.6347902e-02
  1.5305740e-01
 -1.6321203e-01
  6.4189911e-01
 -2.8828867e-02
 -6.4270496e-02
  6.3170217e-02
  8.1638686e-02
 -8.2814336e-02
 -9.8482937e-02
 -1.9357875e-01
  3.8110483e-02
 -2.7932110e-01
 -4.0905261e-01
  4.0314202e-03
 -8.7895235e-03
 -2.4581468e-02
  2.2907441e-02
  1.0945792e-01
  3.6666904e-02
 -9.0547144e-02
 -5.9714238e-03
 -3.0466057e-02
 -2.7327761e-02
 -6.9211341e-02
 -1.0882296e-01
 -3.5964619e-02
  2.0210563e-01
  4.4465285e-02
  6.9881260e-02
 -3.3890463e-02
 -5.8556534e-02
 -7.2659417e-03
  2.5686491e-01
 -2.0543704e-02
 -1.6013894e-02
 -2.9102901e-02
  2.0781679e-02
  1.0943837e-02
  1.6569750e-01
 -1.9566195e-01
 -4.9871277e-02
 -5.2101005e-02
  3.1843748e-02
 -1.0397992e-01
 -1.3261837e-02
  1.0498377e-02
  1.2082345e-02
  2.3975981e-02
  1.6271426e-01
 -7.7477405e-03
 -1.0755296e-02
  7.6490287e-03
  4.7516696e-02
 -1.0011894e-01
 -1.0781283e-01
 -4.1741882e-02
  1.0549799e-01
  4.9124762e-02
  6.7012303e-02
 -4.9626123e-02
  8.0341123e-02
 -1.2225008e-01
 -4.3401349e-02
 -3.2990023e-01
  7.5249332e-03
  1.7816511e-01
 -1.7808845e-02
 -1.1662907e-01
 -8.9049876e-02
  1.6968790e-02
 -1.9413203e-02
 -2.2886528e-01
  5.4071802e-03
  7.5454652e-02
  1.2803375e-02
 -5.4401733e-02
 -3.5095509e-02
  4.1432749e-02
  9.0867681e-03
  7.7476822e-02
  1.6008829e-01
 -1.0034119e-01
  2.6800957e-02
 -5.0029974e-02
  4.7453865e-02
  1.1748575e-01
 -9.8342085e-03
  1.4171360e-02
 -5.5031125e-02
 -4.3674372e-02
 -4.2833772e-02
 -9.7234078e-02
 -8.3838351e-02
 -2.6708329e-01
  3.7199305e-03
  5.2184973e-02
 -3.1154584e-02
 -2.9594544e-02
  1.0703329e-01
 -9.7281978e-02
  9.0341419e-02
  1.9416833e-02
  1.4057493e-01
 -2.5569439e-02
  7.3682025e-02
  3.3399224e-02
  7.9852156e-02
  5.6053833e-03
 -1.6391033e-02
 -2.6484020e-02
  5.5644803e-02
 -6.3507035e-02
 -9.1424678e-03
  3.7130658e-02
 -9.2490964e-02
  9.1702081e-02
 -3.4421861e-01
 -1.1496289e-01
  4.0075343e-02
  1.9110432e-02
 -3.3491109e-02
  1.9090740e-01
 -1.0185146e-02
  1.1278697e-01
 -4.9435357e-03
  1.0673359e-02
  1.6731982e-01
 -1.5538192e-01
  5.3121563e-02
  3.1502239e-02
 -1.6645265e-01
 -8.9358062e-02
 -1.3604631e-02
 -6.5015309e-02
 -9.9123204e-03
 -1.1335856e-02
 -1.3916506e-02
 -2.9478488e-03
  3.2525979e-02
  2.3124075e-01
  2.2436669e-02
  3.3282861e-03
  2.5007972e-02
  1.0981800e-01
 -3.4101200e-01
  1.2326683e-01
  1.7683426e-01
 -1.5633336e-03
  8.8169072e-03
 -4.2499132e-02
 -1.1624515e-01
  1.1501756e-01
 -5.9368525e-04
  2.4903117e-01
 -3.9445881e-02
 -6.8571381e-02
  3.4259021e-02
 -8.0720715e-02
  2.3649378e-02
 -1.2051943e-01
  6.8616346e-02
  3.3496819e-02
  3.4109317e-02
 -5.5981360e-02
  4.7931250e-02
 -3.6220901e-02
  1.0233655e-01
  3.0568516e-02
 -6.3489247e-03
  6.2957695e-03
  6.0534038e-02
  2.0955380e-03
 -4.4482272e-02
 -3.8448688e-02
  6.0898729e-02
 -4.9927317e-02
 -3.3874765e-02
 -1.3373882e-01
  5.2302517e-02
  1.8722346e-03
  8.9240730e-02
 -2.1493454e-02
  1.9498882e-01
 -1.1482569e-01
  1.2086726e-01
 -2.5459917e-02
 -1.1529019e-01
  6.1387360e-02
  7.5271048e-02
  6.0875509e-03
 -3.3241909e-02
  2.0095939e-02
 -1.5723005e-02
  2.6367754e-03
  2.3188405e-02
 -3.1872924e-02
 -3.2453902e-02
  5.5848504e-03
  4.3453272e-02
 -4.5742188e-03
 -6.7439795e-02
 -1.4305525e-02
 -4.5428682e-02
 -5.0514918e-02
  1.1886774e-02
  7.8116149e-02
  3.2753173e-02
  4.9044643e-02
 -2.1698149e-02
 -3.1341374e-02
 -5.8681745e-04
 -3.9485670e-03
  2.2442495e-02
  3.3160962e-02
  3.0357976e-04
 -1.2080017e-01
 -2.9557545e-03
 -5.8611892e-02
  2.0689202e-02
  3.4826256e-02
  4.7924250e-02
  3.0312654e-02
  1.9598197e-02
 -5.1102256e-03
 -5.0056126e-02
  5.2928027e-02
 -3.2070834e-02
  1.3197754e-01
 -6.0134731e-02
 -2.3288118e-02
  9.4459675e-02
  3.9638039e-03
  1.4441456e-01
  1.7288450e+00
 -2.3257162e-02
 -4.2444067e-03
  8.5578650e-01
  3.3998057e-02
  1.6694458e-01
  1.0257157e-01
  8.2031935e-02
  7.9282239e-02
  7.4184343e-02
  6.0440332e-01
 -3.5879634e-02
  6.0889151e-02
  3.9551269e-02
  1.0307473e-01
  4.7752938e-01
 -3.7047064e-03
  7.4214183e-02
 -2.2768082e-02
  1.7585794e-02
  9.7231511e-03
  3.2935382e-03
 -2.2198484e-04
  7.9484478e-02
 -9.9904102e-01
  5.0468200e-01
  4.3712634e-01
  3.2298874e-02
 -4.8155698e-01
 -6.6234291e-01
 -1.7724833e+00
 -4.0733479e-02
  1.6416100e-01
  7.9143196e-01
  1.8863446e+00
 -3.7006515e-01
  3.7102725e-02
  5.9935308e-01
 -5.7679468e-01
  6.4200979e-01
 -9.7626251e-01
 -3.2948300e-02
  6.8684739e-01
  6.6215384e-01
  1.2449965e+00
 -5.6300080e-01
  7.9206869e-02
  4.5218143e-01
  1.1432990e+00
 -4.6171439e-01
 -1.2454623e-01
 -3.1775486e-02
 -2.6378281e-02
 -1.4683635e-02
  1.0639547e-01
  2.7727120e-02
  8.6456366e-02
  9.3305767e-02
 -7.2203711e-02
  7.2600201e-02
 -1.3237773e-01
  6.0800142e-03
  1.0112858e-01
 -4.4478841e-02
  2.0768945e-01
 -1.2715200e-01
  3.7273176e-02
 -5.3352460e-02
  8.9926295e-02
 -2.5893684e-02
  3.9992552e-02
  6.0410142e-02
  2.2381090e-01
 -4.7461040e-02
  5.0548270e-02
  9.7850794e-03
  2.8756477e-02
 -7.8519203e-02
 -1.7052323e-01
 -6.1573642e-01
 -6.9374956e-02
  1.2670330e-02
  1.0911383e-01
  6.0305249e-02
 -3.2135345e-02
 -2.4347804e-03
  3.6688626e-04
 -3.9949287e-02
  1.3188544e-01
  1.7109680e-01
  1.3112251e-02
  4.2954657e-02
 -1.9803287e-02
  1.7358720e-02
  1.3726298e+00
 -1.4737780e-01
 -6.7591645e-02
  2.3275409e-02
  2.8338715e-01
 -1.4438000e-01
  3.0662730e-01
 -1.6057225e+00
  5.3514005e-03
  1.0932630e-01
  2.2939520e-01
  8.9244202e-02
  1.7971814e-02
 -5.0941274e-02
  5.2431542e-01
 -5.2662874e-03
 -7.8758318e-03
 -4.2974450e-02
 -4.4155069e-02
  8.3934583e-02
 -7.5825524e-01
  1.2521143e-01
 -8.5796073e-02
 -8.2105589e-01
  1.0104894e-01
  3.4362939e-01
  2.4435577e-01
  8.9323245e-02
  1.7119092e-01
  1.1654236e+00
 -2.4093723e-02
  1.2819625e-01
 -8.8297382e-02
  1.9460805e-02
  3.0582264e-01
  3.3328360e-01
  1.8873328e-01
 -1.4595501e-01
 -1.4063850e-02
  7.5393231e-03
 -4.9281392e-01
  5.2472040e-02
  8.5703030e-02
  2.0398058e-02
  4.7864676e-01
 -6.6369556e-02
  8.8083804e-02
 -9.9403849e-03
  1.8711245e-02
 -9.0734906e-02
 -1.1912039e-01
  1.2212583e-01
  1.2741907e-02
 -2.2976510e-02
 -1.5069063e-01
 -1.7094302e-01
  1.5758755e-02
 -5.8245320e-02
  1.4191532e-01
 -1.1566855e-01
 -5.0689434e-03
  2.6823780e-02
 -1.1347198e-01
  1.1757496e-03
 -1.0720845e-01
 -1.1191370e-01
 -5.1605558e-01
  2.0933738e-02
  1.8215927e-03
 -4.4617951e-03
 -1.3899913e-01
 -5.0895248e-02
  1.0012162e-01
  2.2386387e-02
 -1.2014650e-02
  2.4243785e-02
  1.0927171e-01
  9.5072724e-03
 -8.3818004e-02
  3.1754489e-03
  3.2525161e-01
 -3.7981126e-02
 -9.0850651e-02
 -6.8215758e-02
 -2.4552172e-02
 -7.9810023e-01
  7.6705433e-02
 -6.8806857e-02
 -1.7635775e-01
 -2.5385118e-01
  3.4072049e-02
  7.5151999e-03
 -2.6819440e-02
  4.0079001e-02
  5.7385361e-01
 -1.4613788e-01
 -1.2223025e-01
  3.4820296e-02
 -4.6688270e-02
 -6.2467745e-03
  3.4178693e-02
  1.1763085e-01
 -1.3800303e-02
 -1.4671367e-02
 -8.3000753e-03
 -5.4166988e-02
 -1.0012850e-02
 -2.7053462e-02
 -7.3360167e-02
  3.8997777e-02
  3.7365634e-02
 -1.4347394e-01
 -1.2370527e-01
  7.2573729e-02
 -6.9170326e-02
  9.3510831e-03
  1.6831057e-01
 -1.8482387e-02
  5.4906629e-02
 -6.1749388e-03
 -6.2826134e-02
  5.7629071e-02
  3.4320991e-02
 -6.1829139e-02
 -3.2675523e-02
  3.0958146e-02
 -4.3541782e-02
  1.3832568e-02
 -2.4942849e-02
  4.5243435e-02
  1.1889218e-02
  1.0591474e-01
 -4.7798645e-02
 -4.7820617e-02
  1.2562142e-02
 -5.1316898e-02
  1.1195448e-02
  2.4757365e-02
 -2.0794466e-01
  7.1223760e-03
 -8.8228978e-02
  9.4845325e-01
 -1.1967494e-01
  5.4277784e-01
  1.0054362e-01
 -3.3049378e-01
 -6.2281030e-01
  2.3537790e-02
 -2.0306374e-01
  2.5229168e-01
  3.0184467e+00
 -6.0480118e-02
  7.6202489e-02
  1.2234788e-01
 -8.1214286e-02
  3.2228607e-01
 -1.1531612e-01
 -1.6377509e-02
 -1.1225764e-01
 -3.2903874e-01
  2.4742211e-01
 -2.0931223e-01
  7.5881325e-02
  1.1153861e-01
  3.4307379e-02
 -5.2937031e-01
 -7.6325410e-03
  3.2278356e-01
  3.1759541e-02
  3.3961188e-02
 -3.9338145e-02
 -1.4282267e-02
  7.4350394e-02
  9.8340595e-03
  4.3739784e-03
 -4.7931755e-03
  3.5561630e-01
 -1.7832059e-02
 -4.6511081e-01
 -6.8298206e-03
 -2.8426820e-02
  1.5491828e-01
 -2.2547334e-02
 -2.3016782e-02
  1.8002281e-02
 -2.1114807e-01
  1.5739689e-02
 -8.4603436e-02
  3.7546955e-02
  1.5532254e-02
  8.7226659e-02
 -1.0182457e-01
  4.7888227e-02
 -2.1745863e-03
 -3.5062015e-02
  2.3584604e-02
 -6.6022240e-02
 -5.1025173e-04
  1.6784380e-01
  1.0748493e-02
  1.2588935e+00
  8.1206448e-02
 -6.6188887e-02
 -1.1330634e-02
  1.0924379e-01
  1.4141668e-01
 -1.2257848e-01
  1.8744786e-01
 -1.2586309e-02
  3.8991007e-01
  1.9362269e-02
 -1.6754508e-01
 -9.4561458e-02
  1.0630614e-01
 -2.6802614e-01
 -6.8319134e-02
  9.9991290e-03
 -6.5931991e-02
  1.2298328e-01
 -2.4888763e-01
 -6.2293333e-01
 -5.7200842e-02
  7.9249986e-02
  6.2844507e-02
  8.7562613e-02
 -5.4915309e-02
 -2.0724410e-02
  3.8232595e-02
  2.8231619e-02
  1.8182570e-02
 -1.5812745e-02
  4.3494750e-02
  1.0366712e-03
  1.1244368e-01
  6.2824242e-02
  3.7894943e-03
  2.3343619e-02
  1.4125763e-02
 -1.7903405e-03
  4.4589631e-02
  3.7176795e-02
  1.0774457e-03
 -1.3569933e-01
 -5.3070305e-04
 -5.5447739e-02
  1.4349404e-02
 -4.7001060e-02
 -3.2575063e-02
 -1.4678690e-02
 -3.3118557e-02
  1.4077957e-02
  1.2880118e-03
  4.9474258e-02
  1.5873092e-01
 -8.3017848e-02
  5.5205833e-02
 -1.3916516e-02
  1.8231474e-01
  4.1007861e-02
 -5.7394229e-02
 -1.4897205e-01
 -2.6241559e-01
 -1.0150299e-01
 -4.6404961e-02
  7.6803133e-02
  2.0521764e-01
  3.4392554e-02
 -5.5306032e-02
  9.7808391e-02
  3.9596242e-01
 -8.7199189e-02
  5.0373103e-02
 -6.1985794e-02
 -4.2625517e-01
  3.3852991e-02
  9.9813126e-02
 -7.1572572e-02
  2.2885012e-02
 -4.5072129e-01
  3.6783138e-01
 -9.6937075e-02
  3.1038949e-01
  2.4071770e-02
  1.2334678e-01
  5.0489172e-02
 -1.2549852e-01
 -7.0446551e-02
 -4.5810495e-02
  3.2901184e-03
  1.5854148e-02
 -8.4508292e-02
 -3.9178580e-02
 -1.1460596e-02
 -3.6895224e-01
 -9.6584953e-02
  6.2676943e-03
  3.7785634e-02
  3.8369529e-02
 -1.0684390e-01
  2.0557342e-01
  4.7900524e-02
 -7.6467812e-02
 -3.7106143e-03
 -6.1638460e-02
  2.1844359e-02
  2.7297571e-01
  2.7757493e-01
  5.0524678e-02
 -5.3148240e-02
  1.0688829e-01
  9.7309142e-02
 -7.9034381e-02
 -8.9811087e-02
  1.3458369e-02
  9.4216809e-02
  3.9603047e-02
  3.0992035e-02
  3.5100372e-03
  3.2875212e-04
  2.8407883e-02
 -9.8534144e-02
 -4.0982034e-02
  1.0674047e-01
  1.2519626e-02
  2.0343106e-02
  1.1445608e-02
  1.6577139e-02
 -9.5567614e-02
 -4.0515054e-02
 -1.9133039e-02
  6.1537899e-02
 -2.9393537e-02
 -2.8938251e-02
  1.1207401e-01
  1.0672280e-02
 -1.3315481e-02
 -7.6646000e-02
 -3.4572601e-02
 -1.7971905e-02
  5.4347318e-01
 -1.2934875e-01
  1.2391347e-01
  2.1350455e-01
 -1.1682529e-02
 -1.4134832e-03
 -1.8235663e-02
 -7.1933001e-02
 -3.5936918e-02
  7.3140539e-02
  5.3863325e-03
  1.1231623e+00
 -6.2499195e-01
  2.0647249e+00
  6.5195346e-01
  2.2624858e-04
 -3.1327847e-01
 -6.0845298e-01
  7.9025161e-01
 -1.5598290e+00
  7.9044491e-01
  6.9174284e-01
  1.0109273e-01
 -8.4875125e-01
 -3.6236286e-02
 -1.6871049e+00
  1.8135774e+00
 -2.6697791e-01
 -1.4295204e+00
 -7.5351316e-01
  4.7059220e-01
  6.4840716e-01
  1.1582087e+00
 -5.0323164e-01
  1.4640807e+00
 -5.5971153e-02
  1.3322141e+00
 -7.7223897e-01
 -9.7395194e-01
 -1.4498219e+00
 -8.9897290e-02
 -3.0221269e+00
  7.7639097e-01
 -1.3964866e+00
 -1.1221641e-01
 -8.7058768e-02
 -9.2075777e-01
  1.4286934e+00
 -2.3964682e+00
  6.4159876e-01
 -3.6292872e+00
 -6.9153619e-01
  8.2058394e-01
  2.2697029e+00
 -3.0695903e-01
 -2.9443553e-01
  1.2334527e+00
 -2.7609553e+00
 -2.6161948e-01
  1.2619437e+00
  7.1871442e-01
 -2.8419344e+00
 -6.4232051e-02
  1.7764041e+00
 -1.3025120e+00
  6.6057914e-01
 -3.9831538e+00
 -2.5466555e-01
  3.3421669e+00
  3.5316937e+00
  3.7630978e-01
 -1.2819466e-02
  8.6521648e-02
  8.9312298e-03
 -1.1987268e-02
 -4.0403582e-02
  5.4213841e-02
  4.1481224e-03
  8.2522392e-02
  6.8648220e-03
 -1.0992682e+00
 -3.8923234e-02
  4.7279708e-02
 -2.8399475e-02
 -2.6038602e-02
  3.8566779e-02
 -8.0759518e-02
 -1.4197707e-01
  4.5665953e-02
  2.4377520e-03
 -2.7733544e-02
  1.5675676e+00
 -6.2954560e-02
  5.6936421e-02
  4.3449406e-02
  1.2587510e-02
  4.5128886e-02
  1.1956111e-01
 -2.1821361e-02
 -3.0930696e-02
  5.5734138e-03
 -1.9487211e-01
  8.2304962e-02
 -1.6857885e+00
 -2.3152789e-02
  9.1800064e-01
  2.3242342e-01
  7.7541783e-02
  3.2204917e-01
  1.3019695e+00
  6.0970145e-03
  5.4782212e-01
  3.7290521e-02
 -9.4323382e-02
  7.5620800e-01
 -1.4285948e-02
  1.1498295e+00
 -1.1256669e-01
  6.2063020e-01
  3.5095134e-01
 -8.7338522e-02
  3.8495386e-01
  1.2583493e-01
  2.0414038e-01
  2.0158659e-01
  9.8270454e-02
 -9.0617701e-02
 -5.1875347e-03
 -4.0093612e-02
  4.7804903e-02
 -1.4927812e-01
  8.9411594e-02
 -3.9211992e-02
 -1.9741920e-01
  4.9991015e-02
  1.7526945e-01
 -7.8401186e-02
 -3.2209732e-02
 -1.4721265e-01
  8.8220753e-02
 -3.3438902e-02
 -1.5629541e-02
 -1.7558778e-02
  2.8177433e-02
  8.4019437e-02
  1.2411322e-02
  1.6687010e-01
 -1.4645904e-02
 -1.2953088e-01
  1.8111061e-01
  1.7002253e-02
  1.8376504e-01
 -1.2376633e-01
  3.4377498e-03
 -1.9158240e-02
  1.1428769e-01
 -8.9360051e-02
 -2.0764561e-02
 -8.2295649e-02
 -1.6026776e-02
 -8.9504051e-01
 -9.2650726e-02
 -9.0123657e-03
  4.8905253e-01
  4.9648702e-02
 -7.2832756e-02
 -1.6231721e-02
  4.6054134e-01
 -7.6966338e-02
 -2.4597016e-01
 -2.6718169e-02
 -3.2272566e-02
 -2.8945206e-02
  3.8731517e-03
 -6.2106274e-02
  6.5304913e-02
 -1.6259423e-01
  1.2584108e-01
  6.2993795e-02
 -1.7151682e-02
 -2.9619198e-02
 -2.5103467e-02
  4.4053141e-02
  1.6957682e-01
 -7.1101740e-02
  3.6879918e-03
  4.8237643e-03
 -1.4732341e+00
  5.6592979e-02
 -1.4582174e-02
  4.5522925e-02
  1.3416730e-01
  1.9942924e-02
  1.4608579e-03
 -8.8218842e-03
 -3.9509431e-02
  6.6445313e-02
  3.7082687e-02
 -5.7005651e-02
  9.1028714e-04
 -1.3970515e-02
  1.3290491e-02
  1.2231624e-01
  1.5872102e-02
 -2.1941628e-01
  2.4098866e-02
 -1.9191776e-01
  1.1282598e-01
 -3.1939767e-02
  1.2465505e-02
  1.4871649e-01
 -1.3416586e-02
 -2.0131458e-02
  1.3043299e-01
 -3.7660185e-02
 -1.2154065e-02
  1.4754696e-02
  4.6272259e-02
 -2.2690580e-03
  1.3183329e-02
  1.4618812e-03
  4.1058712e-02
  8.6005366e-01
 -5.0894016e-01
  5.9838095e-03
  4.6087477e-02
  5.7732916e-01
 -8.8856423e-01
 -4.2176574e-02
 -3.4937274e-01
 -1.6603714e-01
  2.8828609e-01
 -2.3624700e-01
 -4.0587747e-01
  8.1943020e-02
 -2.6030151e-02
  4.2103633e-01
  3.5433583e-02
 -4.8445305e-01
  7.1166992e-01
  4.3128185e-02
  7.4789487e-02
  6.4691648e-02
 -2.8021711e-01
  1.9111097e-01
  2.0083569e-02
  2.3332097e-02
 -5.3737316e-02
  1.0656824e-01
 -1.9599290e-01
  4.9297258e-02
  2.3575181e-02
  5.9790388e-02
  1.4450639e-01
 -3.0735511e-02
 -1.6552594e-01
 -7.8684039e-02
 -1.2655585e-01
  1.1114483e-01
 -8.5429624e-02
  4.2126767e-02
 -1.3592948e-01
  1.5774347e-01
  3.0740562e-01
 -4.1347284e-02
  1.1476221e-01
 -3.6251429e-01
  6.9992095e-02
  4.8654256e-03
 -4.5673680e-01
 -4.0639315e-02
 -1.7989658e-02
  2.8210605e-02
  2.6814991e-01
  8.5794859e-02
  1.1872721e-01
  8.9111524e-03
 -1.4890204e-02
 -7.3253281e-02
  2.2826536e-02
  4.1841798e-02
  2.7932238e-02
 -3.4007810e-02
 -5.2180871e-02
 -4.6096612e-02
 -6.3792728e-02
 -3.2565054e-01
  1.1260694e-02
  1.2107100e-01
 -6.9161639e-02
 -2.7297840e-03
 -1.6608899e-02
  5.2866533e-02
  2.5266910e-02
  7.5224720e-02
 -5.4960530e-02
 -8.3372489e-02
 -1.1986570e-02
  1.2903441e-01
  4.1636298e-03
  1.4754762e-01
 -1.8729011e-02
 -3.6642887e-02
  9.4671138e-02
  7.6150447e-02
 -4.4577643e-02
 -1.6247619e-02
 -1.3818246e-01
 -9.6051127e-02
 -1.5863318e-02
  3.2285672e-02
 -9.2704939e-03
 -1.2420949e-02
  6.3464858e-02
 -3.5052117e-02
 -2.5719101e-02
  5.3479921e-02
  8.7444961e-02
 -4.9597226e-02
 -5.6888916e-02
 -3.9380971e-02
 -2.9710613e-02
 -1.6299245e-01
 -9.6294314e-02
 -5.1729452e-02
 -2.3885189e-01
 -3.8644064e-02
 -9.1347452e-03
  3.7797873e-03
 -8.7755909e-03
  1.6864629e-02
  5.9022219e-03
 -1.4723419e-01
  5.3555705e-02
 -2.8765083e-03
  1.0888282e-02
  1.5318017e-01
  7.7381227e-03
 -7.6263449e-03
 -3.9628338e-02
  2.9492594e-02
 -1.3687065e-01
  1.4055820e-01
 -2.8179580e-01
  2.6041627e-01
  2.5994843e-02
 -1.7925331e-01
 -2.2470136e-01
 -4.8228845e-01
 -8.8433087e-01
 -1.5034519e-01
 -1.1771769e-01
  2.5403140e-02
 -9.0972580e-02
 -2.7079976e-01
 -7.0278328e-03
 -7.0272321e-01
  1.1364906e-01
 -7.4781895e-02
 -7.1065247e-01
  9.7706959e-02
 -6.5342642e-02
 -8.9702122e-02
  4.2982545e-02
  2.6221558e-02
  2.2382747e-02
 -5.9407152e-02
  2.1123961e-02
 -1.1026760e-02
 -1.0579396e-01
  8.7543130e-03
  9.5674321e-02
  9.6807815e-02
 -6.1472960e-02
  2.2706648e-02
  1.8749271e-03
  4.8470171e-03
 -3.1460065e-02
 -2.0893302e-02
  1.3537954e-02
  2.0507649e-02
 -1.9510573e-01
  1.7244816e-02
  1.6379001e-02
 -8.8137820e-02
  5.6976832e-02
  2.6365338e-02
 -6.7414559e-02
  7.5886599e-03
 -1.5060306e-02
  5.3698048e-02
 -9.0809111e-03
  1.9808510e-02
 -5.2334387e-02
 -9.0613374e-03
  8.7057330e-02
  1.2923999e-01
 -2.6299492e-02
 -6.0053490e-02
  3.7113301e-02
 -1.3046527e-02
 -5.1272672e-02
 -4.6785645e-02
 -3.8231190e-02
  8.4815770e-02
 -9.6078664e-02
 -2.9840496e-01
 -1.3830173e-01
 -1.7034175e+00
 -8.4288858e-02
  2.9804865e-02
 -1.4217913e-01
 -1.5384604e-02
 -1.8069109e-02
 -1.1536953e-02
  1.3990777e-02
 -2.5806990e-02
  3.1964894e-02
  9.2517547e-02
 -2.4575714e-02
  1.8476516e-02
  1.3614841e-03
  8.0468975e-02
 -2.6169030e-02
  1.8355721e-03
  9.4077761e-05
  1.2804582e-02
 -3.3335809e-02
  1.1264386e-01
  4.6555325e-02
 -1.5434699e-01
 -1.0426871e-01
  2.3795206e-02
 -1.1891250e-02
  1.7078517e-02
 -4.5762565e-02
  5.4797236e-02
  1.5834497e-02
 -1.0849106e-02
 -4.3401904e-02
 -6.2250871e-02
 -5.8596522e-02
 -1.6694477e-02
 -3.6031898e-02
 -1.2554391e-02
  1.8435178e-02
 -2.8534627e-01
  1.4308026e-02
  9.6496388e-02
 -1.5500505e-01
  1.1722878e-01
 -5.3420469e-02
 -1.2712361e-02
  3.4341209e-02
 -6.5246999e-02
 -6.0477704e-02
 -2.2733270e-01
  4.0462788e-02
 -1.3418273e-02
  5.8493201e-02
 -4.3200534e-02
  2.9119020e-02
 -2.0405700e-02
  5.9608519e-03
  6.9644347e-02
 -4.8386052e-02
 -2.7786812e-01
  6.4460753e-04
 -5.0938454e-02
 -6.9819078e-02
 -9.3335725e-02
 -6.7953683e-02
  1.2492898e-01
 -4.1236114e-02
 -1.1455858e-02
  3.2077719e-02
  1.4395416e-02
  6.9162495e-02
  1.6765434e-01
  5.0599050e-02
 -2.2173028e-02
  9.7779281e-02
  8.9965381e-02
 -1.0906323e-01
  4.7974240e-02
  1.1266796e-01
 -1.2975152e-01
  1.3510154e-01
  6.4489178e-02
 -1.0439107e-01
  1.2258464e-02
 -2.2002306e-02
  6.7686707e-02
 -9.2660315e-02
 -5.9444597e-03
 -1.4966011e-01
  1.9405311e-02
  1.6355272e-01
 -5.0728146e-02
  1.2939125e-01
 -2.2721531e-02
  2.6225401e-02
  1.0469075e-01
 -1.0324482e-02
  2.2286685e-02
  3.4506407e-03
  1.6050304e-01
  4.9058221e-02
 -7.2135213e-03
  1.8607801e-02
  5.8258194e-02
 -7.7080645e-02
 -5.2126043e-02
 -9.6053876e-02
  3.9987918e-02
 -9.9142812e-02
 -7.5680320e-03
 -2.2326244e-02
 -1.1445706e-02
  3.1562153e-02
 -3.3675618e-02
 -2.7294770e-02
  2.2967771e-02
 -2.1642990e-02
 -1.1570863e-01
  4.4757206e-02
  2.9664587e-02
 -7.2357580e-02
 -3.0065523e-02
  1.9357637e-01
 -1.6922055e-01
  3.6965483e-03
 -5.3915799e-02
 -1.3552603e-02
 -5.9392855e-02
  7.0836715e-02
 -1.0875818e-02
 -3.5636421e-02
  8.8335313e-02
  1.5502289e-01
  2.2851953e-02
 -6.8304501e-02
 -3.0705845e-02
  1.5643792e-02
 -1.1260291e-02
  2.8599652e-02
  2.8263813e-02
  8.1225790e-02
 -9.4147108e-02
  2.5298216e-03
 -2.4167495e-02
 -4.9884282e-03
 -1.2467940e-03
  3.4736428e-02
  4.5775164e-02
  3.9419651e-02
  2.1924408e-02
 -1.1234517e-02
 -8.4489904e-02
 -4.5050133e-02
 -2.0016676e-02
  1.2281466e-01
 -6.6521399e-02
 -3.7008938e-01
  3.6773242e-02
 -1.5213372e-01
  1.2286775e-01
  5.7130441e-02
  4.1806638e-02
 -4.0905468e-02
 -1.5502115e-02
 -1.7593774e-03
 -2.1253340e-01
  2.0235345e-02
  7.9560012e-02
  3.3570193e-02
 -3.6283698e-02
  9.3894385e-02
 -4.0253401e-03
  5.0540894e-02
 -1.0188481e-02
 -1.5586893e-02
 -7.7076271e-02
  6.8392202e-02
  1.5910456e-02
  6.5238476e-02
 -1.3147650e-02
  3.3338811e-02
  1.4358993e-02
 -3.4573309e-02
  6.9276415e-02
 -5.6488011e-02
 -8.2489587e-02
  3.2216089e-04
  3.1160278e-02
  2.7303132e-03
  9.4274178e-02
  2.1011919e-02
 -9.3991850e-03
  4.7256391e-02
  2.5857579e-02
  2.0218273e-01
  2.3647338e-01
  1.7314652e-03
  4.4170249e-02
  5.7392024e-02
  7.8982107e-02
  2.9866716e-02
 -4.8145320e-02
 -9.3409019e-03
  1.1460881e-02
  6.3344236e-03
  1.3854231e-01
 -8.7840289e-02
 -1.6855563e-04
 -8.2735099e-02
 -6.0353044e-02
 -2.1096799e-01
  2.2039084e-02
 -8.4651001e-02
  9.7346529e-03
 -3.2750589e-01
  1.2066732e-01
 -5.2616935e-02
 -3.0324781e-01
  7.6514520e-02
  1.6701359e-02
  8.6688260e-03
 -8.8797644e-02
 -1.5478347e-01
 -1.2714536e-01
 -4.5110970e-03
 -1.9356787e-02
 -7.6723017e-02
 -2.5350481e-01
 -8.6831851e-03
 -5.8836754e-02
  1.3510777e-01
 -7.2422832e-02
 -1.6820950e-02
  8.5741971e-03
  1.1345240e-01
  7.4793182e-02
  4.7912385e-02
  1.2620905e-01
  7.1311608e-02
 -2.3532767e-02
 -3.4143899e-02
 -1.7947231e-01
  9.5432691e-02
  2.4782402e-02
  5.8770619e-02
 -7.7973634e-02
 -2.3859188e-01
  2.3446664e-02
 -6.0451336e-02
  3.1330675e-01
 -1.7948274e-01
 -2.5223089e-05
  2.1165419e-02
 -9.0666607e-02
  1.3027154e-01
  5.3261137e-03
  1.8839656e-03
  2.1124639e-01
  2.0365365e-02
 -5.0010256e-02
 -2.1957787e-02
 -3.7880734e-02
  1.6023971e-02
 -4.8112806e-02
  5.4767676e-02
 -1.2011870e-02
 -8.3316147e-02
  7.4390708e-03
 -1.2774532e-02
  4.5613490e-02
  2.4753714e-02
 -1.0175171e-01
  1.4344318e-01
  1.1675672e-02
  7.6666638e-02
  4.5475662e-02
 -7.0901722e-02
 -1.9027689e-02
  9.5074944e-02
  5.8425362e-03
  1.3701618e-02
 -1.9733800e-02
 -1.1103269e-02
 -6.9268659e-02
  1.3845685e-02
  7.4749373e-02
 -7.7617139e-02
  4.9138512e-02
  4.3360781e-04
 -1.9892877e-02
 -5.8402490e-02
  2.9150950e-02
  4.7662891e-02
  4.4701051e-02
  5.7624958e-02
 -8.1289500e-02
  1.3188419e-01
  7.2789192e-02
 -1.5004946e-01
  9.2093181e-03
  2.4284836e-02
  2.8388655e-02
 -1.8027194e-01
  2.4015261e-02
 -4.9895294e-02
 -5.2131493e-02
 -2.4881890e-02
 -6.9916486e-03
  2.7411973e-02
 -2.0557871e-02
 -1.4205460e-01
  1.7154944e-01
 -1.5932580e-02
 -2.6551282e-02
  1.3247862e-02
  7.1268277e-03
 -1.0982081e-01
  6.5245479e-02
 -3.3320062e-02
  9.9838957e-02
 -1.1083034e-01
  3.4893611e-03
  1.6929761e-02
  5.8200207e-02
  1.3339096e-01
 -1.3815507e-01
 -2.0724791e-01
  1.7889861e-02
  3.4609027e-03
  1.1143232e-01
  3.0860482e-02
 -9.1147937e-02
  5.8563421e-03
 -3.1649064e-02
  4.6386655e-02
  3.0545615e-02
 -3.1631023e-02
  2.4120167e-01
 -4.7961619e-02
  4.0539913e-02
 -5.5579036e-02
  1.0415666e-01
  1.3408810e-01
 -2.9982673e-02
 -3.7809357e-01
  2.3568869e-02
 -3.3797465e-02
  3.9892770e-02
  1.6962146e-02
 -1.8922592e-02
  3.1972401e-02
  4.5051067e-03
  1.1709078e-02
 -6.6281989e-02
 -4.8594851e-02
 -1.9258400e-02
  5.0257102e-02
 -2.0455363e-01
  5.1539347e-02
 -3.3976991e-02
 -1.0411835e-01
 -5.9261110e-02
 -1.4403819e-01
 -3.8667932e-02
 -2.1492228e-01
 -1.2048262e-01
 -1.0094197e-03
 -1.2686573e-01
  3.9095398e-02
 -2.1228037e-04
  1.1827888e-01
 -5.9715495e-02
 -4.2676494e-02
  2.0708177e-02
 -8.4941119e-02
  6.1606750e-02
 -1.8677980e-02
 -4.5714267e-02
  7.3645167e-02
 -6.4321242e-02
  1.5222794e-02
  3.1539615e-02
 -6.1448436e-02
 -6.1960407e-02
 -6.0707014e-02
 -6.1120752e-02
  4.6869675e-03
  5.7908449e-02
  1.2590668e-01
 -1.0829809e-01
  3.8067989e-02
 -6.6440754e-02
  1.9778857e-01
  3.4688842e-02
 -4.3956425e-02
  1.0247806e-02
 -1.7634813e-01
  3.9917197e-02
  1.0214857e-01
 -5.5481616e-02
 -4.7645506e-02
  4.4215832e-02
 -7.5599882e-03
 -2.3280211e-02
  3.1666365e-02
 -7.2708335e-03
 -1.7532215e-02
 -4.4416908e-02
  3.6103578e-04
 -9.1381455e-03
  1.7300628e-01
 -7.3788590e-03
  5.8683276e-02
  1.5399294e-02
 -4.5936845e-02
  6.2286597e-02
 -1.6550543e-02
  5.4384649e-02
  3.3370234e-02
 -8.9296907e-02
 -2.5240825e-02
 -6.8675116e-02
  8.1474349e-02
 -1.1137564e-01
  5.7271522e-02
  1.2307657e-01
  4.4340614e-02
 -5.4661362e-03
  1.3244117e-02
  4.1532174e-02
  4.5814693e-02
  9.9319465e-02
 -3.8924910e-02
 -9.5010914e-02
 -4.0669493e-02
 -8.6981498e-02
  1.0906860e-02
 -7.5081020e-04
 -7.5284010e-03
  1.3674013e-01
 -4.7028989e-02
  3.1291649e-02
 -4.1537140e-02
 -3.5192076e-02
 -1.3963878e-03
 -6.8188280e-02
  2.9245988e-02
  2.5342632e-02
 -9.7836226e-01
  7.9364753e-01
 -9.9705262e-03
 -1.3813643e+00
  7.9658610e-01
 -6.0192049e-02
  2.9740310e+00
 -1.0458191e-01
 -8.1358272e-01
  1.4400345e-01
  3.2862458e-02
  6.1958140e-01
 -4.5397725e-02
 -2.3123374e+00
 -6.0081813e-02
  3.5608646e-02
  1.3668076e+00
  1.3189371e-02
 -4.0609214e-02
 -1.0685584e-01
  6.6382952e-02
 -2.5414564e-02
  1.0853267e-01
  4.6603426e-01
 -7.1407653e-02
  6.6317149e-02
 -1.6571898e-02
 -2.0803377e-02
 -3.0212696e-03
  1.0476887e-01
  5.2944243e-02
 -1.4548603e-03
  1.3581994e-03
  7.9356998e-02
  2.4979787e-02
  8.2428887e-02
 -2.8391443e-02
  4.8692703e-02
 -4.9218368e-02
  4.6314407e-02
 -8.6037928e-01
  1.6705032e-02
  4.0176570e-02
 -2.7864495e-02
 -7.0459224e-02
  5.4185009e-03
 -1.3252919e-03
  1.2242607e-02
 -1.0747328e-02
  1.4900622e-01
  8.0223598e-02
  2.3847263e-02
 -8.7244883e-02
  6.3409373e-02
  5.1891092e-02
 -7.9198964e-02
  6.8634495e-02
  1.8223722e-01
  5.3937845e-02
 -9.5646560e-02
 -1.5484962e-01
 -2.8118307e-02
 -1.7034827e+00
  2.4766245e-01
 -4.6966057e-02
  2.6129201e-02
  4.6023309e-02
  3.9871627e-01
  2.2854554e-02
 -1.9700907e-01
 -1.0370869e-02
 -5.6410942e-02
 -1.1250760e-01
 -1.1597405e-01
  2.1843141e-02
  3.8201462e-02
 -5.0592781e-03
 -4.1159064e-01
  3.0938193e-01
 -8.6255046e-03
 -1.2628657e-02
 -6.9775417e-02
  1.1873379e-01
 -4.3419532e-02
 -2.1496296e-02
  3.5975803e-02
  5.7166435e-02
 -8.5920841e-02
 -3.3437062e-02
  3.7446760e-02
  1.4900022e+00
  2.9185992e-02
 -9.6501727e-03
 -1.4076443e-01
  3.6430728e-02
 -7.2850771e-02
 -2.4290958e-02
  8.8685900e-03
  1.8079512e-02
  2.7353968e-02
  5.2795606e-03
  9.6793845e-03
  9.4951607e-02
 -3.1328291e-01
 -3.7591804e-02
  3.9783314e-02
 -8.1284055e-03
 -3.9918981e-02
 -5.5985704e-02
  5.7852037e-02
 -6.0829278e-02
  2.4431760e-03
  1.5204257e-02
  2.4271944e-01
  1.5172710e-01
  8.9614652e-02
 -2.4241738e-01
  1.4116828e+00
  5.9551205e-02
  1.5016279e-01
  1.8111089e+00
  2.0099884e-01
 -1.1429165e-01
  1.6397610e-01
  2.1356318e+00
  6.0442615e-01
  1.7081524e+00
  1.0607533e+00
  1.4692825e+00
 -6.5020109e-03
 -1.6363003e+00
 -1.2927665e+00
 -1.4229999e+00
 -1.1126964e+00
 -2.2899346e-01
  2.8913147e-03
 -7.5136888e-01
  3.8785523e-01
 -6.1114829e-02
 -3.3099005e-01
 -5.5870837e-01
 -1.4589730e-01
 -3.7747093e-02
 -1.2681358e+00
  8.8086760e-01
 -5.9722841e-01
 -9.2790884e-01
  9.7620052e-01
  9.8804802e-01
 -1.8892549e+00
 -2.6709161e+00
  1.2357919e+00
 -1.1724844e+00
 -2.0593643e+00
 -2.3760743e+00
 -2.2368217e+00
 -3.1930723e+00
 -2.4491836e-01
 -2.1483412e+00
 -1.0907452e+00
  1.4675776e+00
  1.1673501e+00
  2.8427358e+00
 -3.2734808e-01
 -3.0236669e+00
  9.9234498e-01
  9.9550289e-01
 -8.5150480e-01
  2.3770974e+00
 -1.5156107e+00
  2.9008746e+00
 -1.2518051e-02
  2.2798746e+00
  6.7680222e-01
 -3.1145205e+00
  9.1396725e-01
  2.7550240e+01
  4.3757635e-01
 -7.7234119e-01
 -7.1110860e-03
 -1.1066401e+00
  5.3153330e-01
  2.5360113e-01
 -5.6471851e-02
 -1.6097213e-01
 -6.6597670e-02
 -1.4592866e+00
 -3.5196383e-02
  5.6851883e-03
 -9.0181334e-03
 -4.3494500e-02
  1.5654263e-01
  5.8938796e-03
 -4.4208895e-02
  1.0037777e-01
 -6.7347801e-01
 -1.1897206e-01
  9.3066785e-03
  6.3307536e-01
  2.0407023e-01
  7.0030533e-02
 -7.4065603e-02
 -2.5388420e-01
 -5.9180073e-02
 -4.5644775e-01
 -5.4121089e-01
 -4.5184454e-01
 -1.1562147e+00
  1.7517578e-02
  7.5015420e-01
  1.0364392e-01
 -1.7029474e-02
  6.5182678e-02
 -2.2790604e+00
 -2.7887318e-01
  1.0853851e-01
  4.9126767e-02
  2.9503543e-02
 -7.3674950e-03
 -1.1780077e-01
  2.8056983e-02
  6.0981851e-02
  4.6267343e-01
 -8.5937339e-01
  6.2332697e-02
  1.7334381e-01
  1.0318773e-01
 -8.1512844e-03
 -3.7954731e-03
  2.7983692e-02
 -2.2352392e-02
 -5.3790110e-01
 -2.0503266e-01
 -4.0734521e-01
 -2.4098679e-01
  6.3946053e-02
  4.0718967e-01
  2.2917919e-02
  5.7180066e-02
 -1.4477941e-02
 -1.3471967e+00
  4.9334165e-01
  9.7115055e-02
  5.3188235e-01
  2.1872802e-01
  1.0742489e-02
  8.8685840e-02
 -6.9750287e-02
  1.0984785e-01
 -9.1781956e-01
 -5.9307706e-01
 -2.4574578e-02
 -7.3559783e-02
 -5.8946352e-02
  6.4141215e-03
 -3.4793016e-02
  2.4308380e-02
  7.8496411e-03
 -9.3979198e-01
  4.8652199e-01
  1.6328974e-01
  1.3234857e+00
  3.3150762e-01
 -1.5465431e-01
  2.8897837e-02
 -1.1744557e-02
 -1.2328126e-01
  5.1225704e-01
 -1.5562075e-01
 -7.3776748e-03
  3.3741102e-01
  5.3087682e-03
  4.0314654e-03
  6.5309098e-03
 -2.6954932e-02
  2.6195880e-03
  7.6319650e-02
 -1.2835682e-03
  8.9624501e-04
 -4.1082710e-02
  2.9334760e-01
  1.4541902e-02
  1.0715890e-02
 -1.3091716e-01
  8.6357296e-03
 -5.9564370e-01
 -2.5277126e-01
  5.9552658e-02
  1.3099877e+00
 -9.1273308e-02
 -2.1648634e-02
  1.9927956e-02
  7.9449331e-03
 -2.8713023e-02
  1.1832007e+00
  8.6667068e-02
 -1.5670612e-02
  1.0666161e-01
  1.2973660e-01
  1.2006355e-01
  3.0744281e-02
 -1.7035810e-02
 -1.8271949e-02
 -3.6011748e-02
  2.5399491e-01
  4.8720716e-03
  1.0402027e-01
  6.9307911e-01
  1.8478012e-02
 -2.2990985e-02
  8.0618255e-02
  5.1627304e-02
 -4.5494151e-01
  2.2863157e-02
  5.2369080e-02
  3.9352071e-02
 -2.7734658e-01
 -8.0787140e-01
 -4.8036601e-02
 -1.4260117e-02
  2.0581672e-01
  8.1724346e-01
 -1.2588441e+00
  2.5171466e-02
  5.6780439e-02
  8.7179013e-02
  5.2495436e-03
  8.3045267e-02
  6.4398669e-02
  4.4887841e-02
 -4.9589578e-02
  3.1181056e-02
  2.0923698e-02
  1.4336904e+00
  5.4654717e-02
  3.0696765e-01
  1.7442737e-02
  5.2579868e-01
  8.1459992e-02
 -1.4623517e-01
  8.4869035e-02
  1.2794607e-02
 -3.7522361e-01
 -1.5720878e-02
 -9.9132825e-03
 -2.8491876e-01
 -1.1894473e+00
  1.2205945e-01
  1.5348955e+00
 -1.3900317e-02
  1.3364038e-02
 -1.4609900e-01
  8.2394861e-02
 -5.6753233e-02
  4.7647888e-03
  5.4906800e-02
 -3.7015766e-02
 -8.5995173e-01
  1.8225317e-01
 -8.3390556e-02
  4.0154483e-02
 -1.1869386e-01
 -1.2982305e-02
 -3.4405056e-02
 -2.5710532e-01
 -6.9514625e-03
  1.0897586e-03
 -7.9431999e-03
 -4.8978045e-04
  1.6881934e-01
  4.3404225e-02
 -3.4584859e-01
 -6.3993615e-01
 -1.1707931e-01
 -1.5865584e-01
  4.3659127e-01
  2.4680501e-01
 -1.8464578e-02
 -1.6539273e-01
  2.8686749e-02
  4.1401199e-01
  2.6340649e-02
 -8.4219879e-04
 -2.1232123e-02
  6.4215088e-01
  4.9691111e-01
 -4.1051298e-02
 -1.0810081e-03
  7.8711480e-02
  1.8454487e-02
 -8.7886332e-03
 -3.2522753e-01
  8.1827177e-04
 -1.9910219e+00
 -6.8928108e-02
  1.2012414e-01
 -1.1546616e-02
 -4.2604774e-02
 -2.8589565e-01
 -4.3384880e-02
 -5.5068839e-01
 -1.6183637e-01
  6.0557538e-01
  1.1463050e-01
 -3.6027420e-02
 -1.6715242e-02
  4.9176421e-03
 -5.3353023e-02
 -1.2120052e-01
 -2.2646017e-02
 -6.9292472e-03
 -7.9927218e-01
  1.2543947e-02
  6.4538300e-02
  1.7906826e-02
  2.3367511e-01
  6.4013705e-02
 -3.1906879e-01
 -1.1969218e-01
 -1.8037399e-02
  8.4016997e-01
 -4.7904670e-01
 -3.9721933e-01
 -1.1852067e+00
 -8.6989081e-01
 -3.0082691e-01
  2.0290967e-02
 -2.8487762e-02
 -1.8495241e-01
 -2.9596205e+00
  1.0036417e-02
 -2.9904230e-02
  1.8765800e-02
 -1.3371402e-01
 -3.8395591e-02
  1.6286764e-02
 -7.1658261e-02
  1.3088751e-01
  2.8998439e+00
  7.6404437e-02
 -1.6785521e-02
 -3.8983062e-01
 -2.2564799e-02
 -3.7033090e-01
  1.7889825e-01
  2.3451126e-01
 -8.0710419e-02
  2.8618730e-03
 -1.3289498e-01
 -1.3134423e-02
 -2.5655541e-01
 -1.1523923e+00
 -3.2764763e-01
  2.3579925e-02
 -1.0358606e-01
  4.9941666e-02
 -6.5242290e-02
 -3.1979561e-01
 -8.5844798e-03
 -7.5976126e-02
  2.7168679e-01
 -2.4873743e-02
 -4.6763994e-02
  1.3003366e-02
  1.2191414e-01
 -8.1617701e-01
  2.0808041e-02
 -5.3372283e-02
 -6.3329376e-02
 -1.7987528e-01
  7.2445415e-02
 -9.0276718e-02
 -5.5852886e-02
 -8.0274437e-03
 -1.3881032e+00
 -3.4131074e-01
  1.0958952e-02
 -4.0037178e-02
 -4.0390030e-01
 -1.1591131e-02
  1.6460851e-01
 -3.2398723e-02
  4.8756741e-02
 -1.0461085e+00
 -6.8002917e-02
 -5.9495784e-02
 -8.7554973e-01
 -3.4008390e-01
 -3.3106744e-01
 -3.3465613e-02
  2.3537863e-02
 -6.6713050e-02
  3.5016900e-01
 -3.9552499e-02
 -3.3945408e-02
 -6.2457044e-02
  6.9582105e-02
 -1.1158730e-01
  1.0588271e-02
  3.4237746e-02
 -2.2353671e-02
  5.3135365e-01
 -1.4348972e-01
  4.0453024e-02
 -9.0777971e-02
  8.3441168e-02
  2.1974212e-02
  6.0274160e-01
  3.8583755e-01
  7.2799481e-02
 -2.1570744e-01
  6.6388763e-02
 -6.6165313e-02
 -5.7706635e-02
 -2.4029987e-02
 -2.8973434e-02
  6.2323965e-02
  2.9560788e-02
  3.7487086e-02
  2.9756064e+00
 -1.0206515e-01
  1.5060537e-01
  5.5694127e-01
  1.3753440e-02
 -1.2379032e-01
  2.0505683e-02
  3.9915034e-01
 -3.7161686e-02
  1.3833609e+00
 -3.4113694e-02
 -9.6398599e-02
  5.5218123e-02
  8.6574726e-02
  1.6625670e-01
  2.0755067e-01
  1.7733711e-01
 -5.4042414e-02
 -1.7359288e-01
  5.0229752e-01
  7.1430276e-03
 -4.9126996e-03
  1.4787909e-01
 -1.5948130e-01
  1.8093493e-02
 -1.9317232e-01
 -6.3448031e-03
 -2.3070586e-01
 -5.2728045e-01
 -3.0018056e-03
  4.8520088e-01
 -1.4519881e-02
 -8.1836872e-02
 -4.8750103e-02
  7.3249823e-01
  9.9095359e-02
  1.8707103e-03
  1.1159602e+00
 -1.7250830e-01
 -3.1220499e-02
  2.7474621e-01
  3.0579822e-02
  5.3262967e-01
  1.6153188e-01
 -7.5762175e-02
  9.1004618e-02
  1.0935556e-01
  4.7918582e-01
  2.2663776e-02
 -1.7273550e-01
  1.9667305e-02
 -1.2619328e-02
  7.4093756e-03
  4.2680302e-03
 -7.8944236e-01
 -8.7943506e-01
 -4.3056473e-02
  3.7520647e-02
 -1.9321589e-02
  2.7082483e-03
 -1.9401645e-02
  1.3707685e-01
  3.9285716e-02
 -2.8062461e-02
  1.2072192e-02
 -3.5628460e-02
 -1.0483600e+00
 -6.0580816e-02
 -1.9961874e-01
  6.7579079e-01
  2.6156303e-01
  2.0955993e-01
  8.2604402e-01
  1.0982397e-01
  8.9423992e-02
  5.6210428e-01
 -4.7113281e-02
  2.5419910e+00
 -1.1997424e-01
  9.2406785e-01
 -2.6512749e-02
 -1.1016106e-02
  4.7299735e-02
  1.0104201e-02
 -1.5864010e-01
  1.8593999e-02
 -2.3520626e-01
 -9.9195726e-02
 -2.0879093e-01
  1.0013577e-01
  4.8712504e-04
 -2.4367001e-02
  2.4002369e-02
  1.8768908e+00
  6.3255958e-02
  2.2949532e-01
  3.4137618e-02
 -3.6702496e-01
  3.8349283e-01
  1.4562501e-03
 -1.9181847e-04
  2.4955239e-02
 -1.3926384e-01
  8.7455653e-02
 -4.8131484e-01
  3.9737113e-02
  7.3192096e-01
  1.7249348e-02
  2.1883670e-02
 -1.2059398e-02
  1.9004958e-02
 -7.2525787e-01
 -1.2036672e-01
  8.5635297e-02
 -3.0794704e-01
  1.6173848e+00
  8.9940019e-02
 -2.2616280e-02
 -1.0682509e-02
  2.3581736e-02
  8.3638752e-01
  6.7768121e-01
 -3.5735261e-01
  6.0277497e-03
  2.9849944e+00
  6.6391236e-01
 -1.1869211e-02
 -8.8399154e-04
  1.5302702e-02
  1.3724711e+00
  1.5769383e-02
  1.0222335e+00
 -1.7373390e-01
 -1.2542628e+00
  7.9256701e-01
  3.2765150e-01
 -1.7502604e-02
 -2.5818903e-02
  5.9798205e-01
  5.3874537e-02
  1.7855344e+00
 -3.4285881e-02
  3.6768085e-01
  1.1119723e+00
 -1.3177400e+00
 -1.5628770e-01
 -1.6766889e-02
 -1.2640619e+00
 -4.2552003e-01
  4.6744794e-02
  1.4393751e-02
 -5.3778786e-02
  2.5824344e-01
  4.1077842e-04
  1.2588689e-02
 -1.3499566e-02
 -5.6229538e-01
 -2.4606474e-02
  6.8315804e-02
 -6.7497618e-02
  1.3347991e-01
 -2.8833652e-02
 -4.2999375e-01
 -4.5529287e-03
 -3.8362488e-02
  1.3891606e-01
 -2.8950566e-01
 -2.1769314e-01
 -5.0244726e-02
 -8.7713674e-02
 -9.5218979e-02
  2.1461233e-01
 -3.5705429e-01
  1.8464322e-03
  1.1745422e+00
 -4.0512785e-02
  4.0133409e-02
 -4.5718789e-01
 -3.7430249e-02
  1.0893944e-02
 -1.7962248e+00
 -4.4339679e-02
 -8.2213106e-03
 -3.8446321e+00
  1.2713471e-01
  7.6532125e-02
 -2.2451770e-03
  6.1578089e-01
 -6.5283418e-02
  6.4795196e-01
 -5.6048934e-03
 -1.6277105e-02
 -1.1011310e+00
 -4.3593678e-01
 -1.9871850e-01
  1.6148930e-03
  9.4555193e-01
  2.6702337e-02
 -8.7202650e-01
 -1.2271898e-01
 -8.5509753e-01
  6.5874010e-01
  1.2402280e-02
 -7.7241153e-01
  1.9529857e-02
 -4.1275632e-02
 -7.6844610e-02
 -8.8487583e-01
 -2.3135807e-02
 -2.0673133e-03
 -8.8668197e-01
 -2.3131528e-01
  3.5745636e-01
  7.9830945e-02
  5.0983168e-02
 -4.3375888e-03
  4.4777593e-01
 -3.3518973e-01
 -2.9558973e-02
 -1.5670211e+00
 -1.5445223e-01
  3.3541954e-01
 -3.8131785e-02
 -5.2635819e-01
 -5.9165698e-02
  5.0655437e-01
 -1.6724108e+00
  3.6265737e-01
 -7.8760562e-03
  1.0691198e-02
 -6.4109582e-01
 -3.3409223e-01
 -9.3998480e-01
  8.5741818e-02
  1.0305904e-01
 -2.9556734e-02
  3.1762622e-02
 -4.5879237e-02
 -4.5759503e-02
 -2.6267399e-03
  5.0817352e-02
 -5.5390620e-01
 -3.8956244e-02
  7.6233611e-02
  3.3435877e-02
  2.5352335e-01
  2.1895956e-02
  1.7219001e-01
  3.1092223e-02
  7.3397744e-01
  2.3563166e-01
 -3.7325986e-02
  1.0133302e+00
 -4.1844565e-01
  4.7575191e-02
  5.0695143e-03
  4.0321089e-02
  7.4196927e-02
  1.9263104e-02
  1.2928370e+00
  7.1418785e-02
 -5.1108140e-01
 -8.7967224e-02
  1.7641205e-01
  7.8468673e-02
 -2.8508446e-01
  6.6016214e-03
  4.3424138e-01
  1.0143080e+00
  1.9035256e-03
  1.5318440e+00
 -3.0672371e-01
  3.6650512e-01
  1.1261192e-02
 -2.5585452e-02
  1.3845178e-01
  2.4265251e-01
 -1.0754272e-03
 -9.9100217e-02
  8.1713343e-01
 -5.3770655e-01
 -8.7621054e-03
 -1.2466113e-01
 -5.8390814e-01
  6.5274294e-03
  1.7170778e-02
 -9.4945893e-02
  1.0901497e-02
  1.7277342e-01
  1.1448739e-01
  5.8063686e-01
  5.1870473e-02
 -1.5918941e-03
 -4.4595554e-02
  1.6334790e-01
  1.7804916e+00
  1.0848705e-01
  3.6006933e-01
 -5.9056401e-02
  1.8186859e-04
 -4.4081166e-02
  5.4206099e-02
 -7.0896126e-02
  6.4823759e-01
  2.0849371e+00
  1.4289445e-01
 -1.4088848e+00
 -2.2492000e-01
 -1.0332720e+00
 -1.7808378e+00
 -2.7116942e-01
 -1.6090867e-01
  3.1479537e-01
 -1.4616339e-02
  3.0249160e-02
 -3.8733286e-01
 -1.2383422e+00
 -8.3338991e-02
 -1.5764642e-01
 -1.4723615e-01
 -4.8707902e-02
 -2.1238288e-02
  2.1526003e+00
  2.0033566e-02
  2.3162994e+00
 -1.8190311e-01
 -5.1925582e-01
 -1.4616090e+00
 -1.0253174e-01
 -6.5560810e-02
  2.2504635e-02
 -3.0635259e-01
  8.6580954e-02
 -1.6270337e+00
 -1.7932733e+00
 -9.5013750e-01
 -1.0657251e+00
  3.4911113e-03
  7.6134729e-01
  9.7266752e-01
  1.8790619e-02
  1.8417640e-02
  5.8313623e-02
 -1.3335893e+00
  1.7531453e-02
 -2.8177747e-03
  2.9191287e-02
  1.9805419e-01
  4.4895828e-02
  2.9464373e-01
 -2.3922814e-01
  6.4017892e-01
  6.1064109e-02
 -1.0749590e+00
 -1.5471871e+00
 -1.8862560e-01
 -4.8811442e-01
  4.6404555e-01
  3.1275127e+00
 -1.0184849e-02
 -1.9356095e+00
 -2.5925120e-02
 -2.1932326e-01
 -2.7030674e-01
 -3.1899158e-02
  1.2534424e+00
  2.5757501e-02
  2.7897131e+00
  7.8209527e-02
 -1.4750689e+00
 -1.2507764e+00
 -5.7659227e-01
 -1.0768999e+00
 -5.0595626e-02
  1.0515834e-01
 -6.5033793e-01
  8.3768809e-01
 -2.9747164e-01
 -3.1188151e-01
 -2.9369032e-01
 -4.0802249e-01
 -3.4784049e-01
 -4.2500839e-02
 -6.3046843e-01
  2.1986762e-01
 -4.5874703e-01
  4.4318244e-02
  1.1873853e+00
 -6.0581011e-01
 -6.5223241e-01
 -2.1709430e-01
 -5.2055281e-01
  1.1090866e+00
  3.7914593e-02
 -4.0399753e-02
 -3.8210922e-03
  3.0582773e-02
  4.4001322e-02
 -3.7742551e-02
 -2.3612775e-02
  2.7569260e-03
  4.0821421e-01
 -1.0854312e-02
 -1.5151242e-02
 -3.3717498e-02
  2.5146310e+00
  2.4893665e+00
 -6.1196566e-01
 -1.7937582e+00
 -2.6437390e-01
 -8.7220266e-02
 -2.6122136e-02
 -4.4999633e-02
  4.6089299e-02
 -7.2548807e-01
  2.1522307e+00
 -9.5233738e-02
 -1.3528830e+00
 -5.9446412e-01
 -1.0781242e+00
 -3.2953512e-02
  3.2341543e-01
 -2.6463071e-02
  1.1013973e+00
  1.1119342e-01
 -1.5593749e-01
 -3.4965247e-01
 -2.0147186e-02
 -4.9822262e-01
  4.0783118e-02
 -1.1711254e-02
 -5.5745454e-03
  2.7658969e-01
 -2.9168698e-01
 -1.5385607e-01
 -5.7386273e-01
 -7.1317422e-01
  1.5880327e+00
  4.5373044e-03
  2.2456605e-02
  5.7349883e-02
  9.1426116e-01
  3.1472033e-01
 -3.2322437e-02
 -2.1095720e-01
 -4.7435006e-01
 -4.3809135e-02
  3.2650135e-02
 -3.5427835e-02
  1.4342457e-01
  7.7820957e-01
  7.6881850e-01
 -4.8071880e-02
 -4.3026999e-01
  4.4051904e-02
 -2.3596933e-01
  9.2089467e-02
  1.4952113e-01
 -1.0284808e-01
  5.2123380e-01
  4.0379354e-01
 -2.4617171e-02
 -1.2233698e+00
 -7.1137965e-01
  5.9386671e-01
  1.2977907e-01
  2.2744317e-02
 -7.0230164e-02
  2.2558132e-02
  2.2558132e-02
  2.2558132e-02
  2.2558132e-02
  2.2558132e-02
  9.5282719e-02
  9.5282719e-02
  9.5282719e-02
  9.5282719e-02
  9.5282719e-02
  4.6628430e-02
  4.6628430e-02
  4.6628430e-02
  4.6628430e-02
  4.6628430e-02
  4.1125722e-02
  4.1125722e-02
  4.1125722e-02
  4.1125722e-02
  4.1125722e-02
  2.6133904e-02
  2.6133904e-02
  2.6133904e-02
  2.6133904e-02
  2.6133904e-02
  3.8540311e-02
  3.8540311e-02
  3.8540311e-02
  3.8540311e-02
  3.8540311e-02
